<?xml version="1.0"?>
<opencv_storage>
<cascade>
  <stageType>BOOST</stageType>
  <featureType>HAAR</featureType>
  <height>46</height>
  <width>38</width>
  <stageParams>
    <boostType>GAB</boostType>
    <minHitRate>9.9500000476837158e-01</minHitRate>
    <maxFalseAlarm>5.0000000000000000e-01</maxFalseAlarm>
    <weightTrimRate>9.4999998807907104e-01</weightTrimRate>
    <maxDepth>1</maxDepth>
    <maxWeakCount>100</maxWeakCount></stageParams>
  <featureParams>
    <maxCatCount>0</maxCatCount>
    <featSize>1</featSize>
    <mode>BASIC</mode></featureParams>
  <stageNum>4</stageNum>
  <stages>
    <!-- stage 0 -->
    <_>
      <maxWeakCount>3</maxWeakCount>
      <stageThreshold>-1.0733078718185425e+00</stageThreshold>
      <weakClassifiers>
        <_>
          <internalNodes>
            0 -1 9 2.4514298886060715e-02</internalNodes>
          <leafValues>
            -9.1647332906723022e-01 6.3218390941619873e-01</leafValues></_>
        <_>
          <internalNodes>
            0 -1 3 -8.2301914691925049e-02</internalNodes>
          <leafValues>
            6.8086403608322144e-01 -8.2586139440536499e-01</leafValues></_>
        <_>
          <internalNodes>
            0 -1 1 -3.3233605325222015e-02</internalNodes>
          <leafValues>
            6.6902685165405273e-01 -7.1194779872894287e-01</leafValues></_></weakClassifiers></_>
    <!-- stage 1 -->
    <_>
      <maxWeakCount>3</maxWeakCount>
      <stageThreshold>-1.2183630466461182e+00</stageThreshold>
      <weakClassifiers>
        <_>
          <internalNodes>
            0 -1 0 1.3606403768062592e-01</internalNodes>
          <leafValues>
            -8.7472033500671387e-01 7.1830987930297852e-01</leafValues></_>
        <_>
          <internalNodes>
            0 -1 2 -8.2769170403480530e-03</internalNodes>
          <leafValues>
            -9.0369695425033569e-01 4.5830777287483215e-01</leafValues></_>
        <_>
          <internalNodes>
            0 -1 6 -2.1864082664251328e-02</internalNodes>
          <leafValues>
            6.7435097694396973e-01 -8.0195045471191406e-01</leafValues></_></weakClassifiers></_>
    <!-- stage 2 -->
    <_>
      <maxWeakCount>3</maxWeakCount>
      <stageThreshold>-1.3860195875167847e+00</stageThreshold>
      <weakClassifiers>
        <_>
          <internalNodes>
            0 -1 5 -4.1444934904575348e-03</internalNodes>
          <leafValues>
            1. -8.7336242198944092e-01</leafValues></_>
        <_>
          <internalNodes>
            0 -1 8 3.6302266380516812e-05</internalNodes>
          <leafValues>
            4.4985011219978333e-01 -9.6757024526596069e-01</leafValues></_>
        <_>
          <internalNodes>
            0 -1 7 -6.0203426983207464e-04</internalNodes>
          <leafValues>
            5.8594065904617310e-01 -9.6250730752944946e-01</leafValues></_></weakClassifiers></_>
    <!-- stage 3 -->
    <_>
      <maxWeakCount>3</maxWeakCount>
      <stageThreshold>-9.6179258823394775e-01</stageThreshold>
      <weakClassifiers>
        <_>
          <internalNodes>
            0 -1 10 -2.9987245216034353e-04</internalNodes>
          <leafValues>
            -9.9534881114959717e-01 1.</leafValues></_>
        <_>
          <internalNodes>
            0 -1 10 -2.9987245216034353e-04</internalNodes>
          <leafValues>
            -9.6644377708435059e-01 1.</leafValues></_>
        <_>
          <internalNodes>
            0 -1 4 2.8284047730267048e-03</internalNodes>
          <leafValues>
            1. -9.5611226558685303e-01</leafValues></_></weakClassifiers></_></stages>
  <features>
    <_>
      <rects>
        <_>
          0 0 27 35 -1.</_>
        <_>
          9 0 9 35 3.</_></rects>
      <tilted>0</tilted></_>
    <_>
      <rects>
        <_>
          1 34 36 11 -1.</_>
        <_>
          13 34 12 11 3.</_></rects>
      <tilted>0</tilted></_>
    <_>
      <rects>
        <_>
          4 3 24 27 -1.</_>
        <_>
          4 12 24 9 3.</_></rects>
      <tilted>0</tilted></_>
    <_>
      <rects>
        <_>
          4 21 26 19 -1.</_>
        <_>
          17 21 13 19 2.</_></rects>
      <tilted>0</tilted></_>
    <_>
      <rects>
        <_>
          6 16 9 9 -1.</_>
        <_>
          6 19 9 3 3.</_></rects>
      <tilted>0</tilted></_>
    <_>
      <rects>
        <_>
          8 33 10 12 -1.</_>
        <_>
          8 37 10 4 3.</_></rects>
      <tilted>0</tilted></_>
    <_>
      <rects>
        <_>
          9 4 22 8 -1.</_>
        <_>
          20 4 11 8 2.</_></rects>
      <tilted>0</tilted></_>
    <_>
      <rects>
        <_>
          13 32 10 4 -1.</_>
        <_>
          13 34 10 2 2.</_></rects>
      <tilted>0</tilted></_>
    <_>
      <rects>
        <_>
          16 16 1 10 -1.</_>
        <_>
          16 21 1 5 2.</_></rects>
      <tilted>0</tilted></_>
    <_>
      <rects>
        <_>
          17 0 19 10 -1.</_>
        <_>
          17 5 19 5 2.</_></rects>
      <tilted>0</tilted></_>
    <_>
      <rects>
        <_>
          22 12 2 6 -1.</_>
        <_>
          22 14 2 2 3.</_></rects>
      <tilted>0</tilted></_></features></cascade>
</opencv_storage>
